digraph Tree {
node [shape=box] ;
0 [label="max_abs_abs_mean_Kz1 <= 0.592\nentropy = 2.283\nsamples = 52\nvalue = [7, 9, 12, 14, 10]\nclass = triangle"] ;
1 [label="abs_mean_Kx0 <= 0.056\nentropy = 1.5\nsamples = 28\nvalue = [7, 7, 0, 14, 0]\nclass = triangle"] ;
0 -> 1 [labeldistance=2.5, labelangle=45, headlabel="True"] ;
2 [label="entropy = 0.0\nsamples = 14\nvalue = [0, 0, 0, 14, 0]\nclass = triangle"] ;
1 -> 2 ;
3 [label="abs_mean_Kx1 <= 0.167\nentropy = 1.0\nsamples = 14\nvalue = [7, 7, 0, 0, 0]\nclass = line"] ;
1 -> 3 ;
4 [label="entropy = 0.0\nsamples = 7\nvalue = [0, 7, 0, 0, 0]\nclass = circle"] ;
3 -> 4 ;
5 [label="entropy = 0.0\nsamples = 7\nvalue = [7, 0, 0, 0, 0]\nclass = line"] ;
3 -> 5 ;
6 [label="max_abs_abs_mean_Ky1 <= 0.343\nentropy = 1.325\nsamples = 24\nvalue = [0, 2, 12, 0, 10]\nclass = rect"] ;
0 -> 6 [labeldistance=2.5, labelangle=-45, headlabel="False"] ;
7 [label="abs_mean_Kx0 <= 0.135\nentropy = 0.65\nsamples = 12\nvalue = [0, 2, 0, 0, 10]\nclass = v"] ;
6 -> 7 ;
8 [label="entropy = 0.0\nsamples = 10\nvalue = [0, 0, 0, 0, 10]\nclass = v"] ;
7 -> 8 ;
9 [label="entropy = 0.0\nsamples = 2\nvalue = [0, 2, 0, 0, 0]\nclass = circle"] ;
7 -> 9 ;
10 [label="entropy = 0.0\nsamples = 12\nvalue = [0, 0, 12, 0, 0]\nclass = rect"] ;
6 -> 10 ;
}